digraph Tree {
node [shape=box] ;
0 [label="X[1] <= 0.207\ngini = 0.453\nsamples = 614\nvalue = [401, 213]"] ;
1 [label="X[7] <= -0.403\ngini = 0.318\nsamples = 394\nvalue = [316, 78]"] ;
0 -> 1 [labeldistance=2.5, labelangle=45, headlabel="True"] ;
2 [label="X[5] <= 1.702\ngini = 0.167\nsamples = 218\nvalue = [198, 20]"] ;
1 -> 2 ;
3 [label="X[5] <= -0.088\ngini = 0.146\nsamples = 214\nvalue = [197, 17]"] ;
2 -> 3 ;
4 [label="X[0] <= 0.937\ngini = 0.033\nsamples = 118\nvalue = [116, 2]"] ;
3 -> 4 ;
5 [label="X[6] <= 0.592\ngini = 0.017\nsamples = 117\nvalue = [116, 1]"] ;
4 -> 5 ;
6 [label="gini = 0.0\nsamples = 103\nvalue = [103, 0]"] ;
5 -> 6 ;
7 [label="X[0] <= -0.399\ngini = 0.133\nsamples = 14\nvalue = [13, 1]"] ;
5 -> 7 ;
8 [label="gini = 0.0\nsamples = 13\nvalue = [13, 0]"] ;
7 -> 8 ;
9 [label="gini = 0.0\nsamples = 1\nvalue = [0, 1]"] ;
7 -> 9 ;
10 [label="gini = 0.0\nsamples = 1\nvalue = [0, 1]"] ;
4 -> 10 ;
11 [label="X[6] <= 0.086\ngini = 0.264\nsamples = 96\nvalue = [81, 15]"] ;
3 -> 11 ;
12 [label="X[2] <= -2.435\ngini = 0.124\nsamples = 60\nvalue = [56, 4]"] ;
11 -> 12 ;
13 [label="gini = 0.0\nsamples = 1\nvalue = [0, 1]"] ;
12 -> 13 ;
14 [label="X[4] <= -0.363\ngini = 0.097\nsamples = 59\nvalue = [56, 3]"] ;
12 -> 14 ;
15 [label="X[2] <= 0.692\ngini = 0.266\nsamples = 19\nvalue = [16, 3]"] ;
14 -> 15 ;
16 [label="X[5] <= 0.21\ngini = 0.198\nsamples = 18\nvalue = [16, 2]"] ;
15 -> 16 ;
17 [label="X[2] <= -0.057\ngini = 0.48\nsamples = 5\nvalue = [3, 2]"] ;
16 -> 17 ;
18 [label="gini = 0.0\nsamples = 2\nvalue = [2, 0]"] ;
17 -> 18 ;
19 [label="X[1] <= -0.795\ngini = 0.444\nsamples = 3\nvalue = [1, 2]"] ;
17 -> 19 ;
20 [label="gini = 0.0\nsamples = 1\nvalue = [1, 0]"] ;
19 -> 20 ;
21 [label="gini = 0.0\nsamples = 2\nvalue = [0, 2]"] ;
19 -> 21 ;
22 [label="gini = 0.0\nsamples = 13\nvalue = [13, 0]"] ;
16 -> 22 ;
23 [label="gini = 0.0\nsamples = 1\nvalue = [0, 1]"] ;
15 -> 23 ;
24 [label="gini = 0.0\nsamples = 40\nvalue = [40, 0]"] ;
14 -> 24 ;
25 [label="X[5] <= 0.845\ngini = 0.424\nsamples = 36\nvalue = [25, 11]"] ;
11 -> 25 ;
26 [label="X[3] <= 0.625\ngini = 0.483\nsamples = 27\nvalue = [16, 11]"] ;
25 -> 26 ;
27 [label="X[1] <= -0.748\ngini = 0.337\nsamples = 14\nvalue = [11, 3]"] ;
26 -> 27 ;
28 [label="gini = 0.0\nsamples = 6\nvalue = [6, 0]"] ;
27 -> 28 ;
29 [label="X[4] <= 0.097\ngini = 0.469\nsamples = 8\nvalue = [5, 3]"] ;
27 -> 29 ;
30 [label="X[0] <= 0.343\ngini = 0.375\nsamples = 4\nvalue = [1, 3]"] ;
29 -> 30 ;
31 [label="gini = 0.0\nsamples = 3\nvalue = [0, 3]"] ;
30 -> 31 ;
32 [label="gini = 0.0\nsamples = 1\nvalue = [1, 0]"] ;
30 -> 32 ;
33 [label="gini = 0.0\nsamples = 4\nvalue = [4, 0]"] ;
29 -> 33 ;
34 [label="X[5] <= 0.42\ngini = 0.473\nsamples = 13\nvalue = [5, 8]"] ;
26 -> 34 ;
35 [label="gini = 0.0\nsamples = 5\nvalue = [0, 5]"] ;
34 -> 35 ;
36 [label="X[0] <= -0.696\ngini = 0.469\nsamples = 8\nvalue = [5, 3]"] ;
34 -> 36 ;
37 [label="gini = 0.0\nsamples = 4\nvalue = [4, 0]"] ;
36 -> 37 ;
38 [label="X[3] <= 1.378\ngini = 0.375\nsamples = 4\nvalue = [1, 3]"] ;
36 -> 38 ;
39 [label="gini = 0.0\nsamples = 3\nvalue = [0, 3]"] ;
38 -> 39 ;
40 [label="gini = 0.0\nsamples = 1\nvalue = [1, 0]"] ;
38 -> 40 ;
41 [label="gini = 0.0\nsamples = 9\nvalue = [9, 0]"] ;
25 -> 41 ;
42 [label="X[4] <= 0.87\ngini = 0.375\nsamples = 4\nvalue = [1, 3]"] ;
2 -> 42 ;
43 [label="gini = 0.0\nsamples = 3\nvalue = [0, 3]"] ;
42 -> 43 ;
44 [label="gini = 0.0\nsamples = 1\nvalue = [1, 0]"] ;
42 -> 44 ;
45 [label="X[1] <= -0.67\ngini = 0.442\nsamples = 176\nvalue = [118, 58]"] ;
1 -> 45 ;
46 [label="X[1] <= -2.892\ngini = 0.219\nsamples = 56\nvalue = [49, 7]"] ;
45 -> 46 ;
47 [label="gini = 0.0\nsamples = 2\nvalue = [0, 2]"] ;
46 -> 47 ;
48 [label="X[6] <= 2.142\ngini = 0.168\nsamples = 54\nvalue = [49, 5]"] ;
46 -> 48 ;
49 [label="X[1] <= -0.826\ngini = 0.14\nsamples = 53\nvalue = [49, 4]"] ;
48 -> 49 ;
50 [label="X[0] <= 2.125\ngini = 0.05\nsamples = 39\nvalue = [38, 1]"] ;
49 -> 50 ;
51 [label="gini = 0.0\nsamples = 36\nvalue = [36, 0]"] ;
50 -> 51 ;
52 [label="X[5] <= -0.094\ngini = 0.444\nsamples = 3\nvalue = [2, 1]"] ;
50 -> 52 ;
53 [label="gini = 0.0\nsamples = 1\nvalue = [0, 1]"] ;
52 -> 53 ;
54 [label="gini = 0.0\nsamples = 2\nvalue = [2, 0]"] ;
52 -> 54 ;
55 [label="X[5] <= 0.445\ngini = 0.337\nsamples = 14\nvalue = [11, 3]"] ;
49 -> 55 ;
56 [label="X[3] <= -0.943\ngini = 0.165\nsamples = 11\nvalue = [10, 1]"] ;
55 -> 56 ;
57 [label="X[1] <= -0.748\ngini = 0.5\nsamples = 2\nvalue = [1, 1]"] ;
56 -> 57 ;
58 [label="gini = 0.0\nsamples = 1\nvalue = [0, 1]"] ;
57 -> 58 ;
59 [label="gini = 0.0\nsamples = 1\nvalue = [1, 0]"] ;
57 -> 59 ;
60 [label="gini = 0.0\nsamples = 9\nvalue = [9, 0]"] ;
56 -> 60 ;
61 [label="X[7] <= 1.809\ngini = 0.444\nsamples = 3\nvalue = [1, 2]"] ;
55 -> 61 ;
62 [label="gini = 0.0\nsamples = 2\nvalue = [0, 2]"] ;
61 -> 62 ;
63 [label="gini = 0.0\nsamples = 1\nvalue = [1, 0]"] ;
61 -> 63 ;
64 [label="gini = 0.0\nsamples = 1\nvalue = [0, 1]"] ;
48 -> 64 ;
65 [label="X[5] <= -0.735\ngini = 0.489\nsamples = 120\nvalue = [69, 51]"] ;
45 -> 65 ;
66 [label="X[5] <= -2.817\ngini = 0.091\nsamples = 21\nvalue = [20, 1]"] ;
65 -> 66 ;
67 [label="gini = 0.0\nsamples = 1\nvalue = [0, 1]"] ;
66 -> 67 ;
68 [label="gini = 0.0\nsamples = 20\nvalue = [20, 0]"] ;
66 -> 68 ;
69 [label="X[6] <= 0.269\ngini = 0.5\nsamples = 99\nvalue = [49, 50]"] ;
65 -> 69 ;
70 [label="X[7] <= 1.809\ngini = 0.483\nsamples = 71\nvalue = [42, 29]"] ;
69 -> 70 ;
71 [label="X[5] <= -0.564\ngini = 0.494\nsamples = 65\nvalue = [36, 29]"] ;
70 -> 71 ;
72 [label="gini = 0.0\nsamples = 4\nvalue = [0, 4]"] ;
71 -> 72 ;
73 [label="X[6] <= -0.821\ngini = 0.484\nsamples = 61\nvalue = [36, 25]"] ;
71 -> 73 ;
74 [label="X[7] <= 1.639\ngini = 0.26\nsamples = 13\nvalue = [11, 2]"] ;
73 -> 74 ;
75 [label="X[1] <= -0.576\ngini = 0.153\nsamples = 12\nvalue = [11, 1]"] ;
74 -> 75 ;
76 [label="X[7] <= 0.49\ngini = 0.5\nsamples = 2\nvalue = [1, 1]"] ;
75 -> 76 ;
77 [label="gini = 0.0\nsamples = 1\nvalue = [0, 1]"] ;
76 -> 77 ;
78 [label="gini = 0.0\nsamples = 1\nvalue = [1, 0]"] ;
76 -> 78 ;
79 [label="gini = 0.0\nsamples = 10\nvalue = [10, 0]"] ;
75 -> 79 ;
80 [label="gini = 0.0\nsamples = 1\nvalue = [0, 1]"] ;
74 -> 80 ;
81 [label="X[0] <= -0.548\ngini = 0.499\nsamples = 48\nvalue = [25, 23]"] ;
73 -> 81 ;
82 [label="X[5] <= 0.198\ngini = 0.32\nsamples = 10\nvalue = [2, 8]"] ;
81 -> 82 ;
83 [label="X[2] <= -0.316\ngini = 0.444\nsamples = 3\nvalue = [2, 1]"] ;
82 -> 83 ;
84 [label="gini = 0.0\nsamples = 1\nvalue = [0, 1]"] ;
83 -> 84 ;
85 [label="gini = 0.0\nsamples = 2\nvalue = [2, 0]"] ;
83 -> 85 ;
86 [label="gini = 0.0\nsamples = 7\nvalue = [0, 7]"] ;
82 -> 86 ;
87 [label="X[2] <= -0.109\ngini = 0.478\nsamples = 38\nvalue = [23, 15]"] ;
81 -> 87 ;
88 [label="X[6] <= -0.332\ngini = 0.42\nsamples = 10\nvalue = [3, 7]"] ;
87 -> 88 ;
89 [label="gini = 0.0\nsamples = 5\nvalue = [0, 5]"] ;
88 -> 89 ;
90 [label="X[5] <= -0.247\ngini = 0.48\nsamples = 5\nvalue = [3, 2]"] ;
88 -> 90 ;
91 [label="gini = 0.0\nsamples = 2\nvalue = [0, 2]"] ;
90 -> 91 ;
92 [label="gini = 0.0\nsamples = 3\nvalue = [3, 0]"] ;
90 -> 92 ;
93 [label="X[0] <= 0.491\ngini = 0.408\nsamples = 28\nvalue = [20, 8]"] ;
87 -> 93 ;
94 [label="X[7] <= 0.83\ngini = 0.153\nsamples = 12\nvalue = [11, 1]"] ;
93 -> 94 ;
95 [label="gini = 0.0\nsamples = 11\nvalue = [11, 0]"] ;
94 -> 95 ;
96 [label="gini = 0.0\nsamples = 1\nvalue = [0, 1]"] ;
94 -> 96 ;
97 [label="X[7] <= -0.148\ngini = 0.492\nsamples = 16\nvalue = [9, 7]"] ;
93 -> 97 ;
98 [label="gini = 0.0\nsamples = 3\nvalue = [0, 3]"] ;
97 -> 98 ;
99 [label="X[4] <= 0.262\ngini = 0.426\nsamples = 13\nvalue = [9, 4]"] ;
97 -> 99 ;
100 [label="X[5] <= 1.073\ngini = 0.219\nsamples = 8\nvalue = [7, 1]"] ;
99 -> 100 ;
101 [label="gini = 0.0\nsamples = 7\nvalue = [7, 0]"] ;
100 -> 101 ;
102 [label="gini = 0.0\nsamples = 1\nvalue = [0, 1]"] ;
100 -> 102 ;
103 [label="X[7] <= 0.15\ngini = 0.48\nsamples = 5\nvalue = [2, 3]"] ;
99 -> 103 ;
104 [label="gini = 0.0\nsamples = 2\nvalue = [2, 0]"] ;
103 -> 104 ;
105 [label="gini = 0.0\nsamples = 3\nvalue = [0, 3]"] ;
103 -> 105 ;
106 [label="gini = 0.0\nsamples = 6\nvalue = [6, 0]"] ;
70 -> 106 ;
107 [label="X[3] <= 1.691\ngini = 0.375\nsamples = 28\nvalue = [7, 21]"] ;
69 -> 107 ;
108 [label="X[2] <= -0.005\ngini = 0.311\nsamples = 26\nvalue = [5, 21]"] ;
107 -> 108 ;
109 [label="X[0] <= 0.343\ngini = 0.5\nsamples = 8\nvalue = [4, 4]"] ;
108 -> 109 ;
110 [label="X[6] <= 0.69\ngini = 0.32\nsamples = 5\nvalue = [4, 1]"] ;
109 -> 110 ;
111 [label="gini = 0.0\nsamples = 1\nvalue = [0, 1]"] ;
110 -> 111 ;
112 [label="gini = 0.0\nsamples = 4\nvalue = [4, 0]"] ;
110 -> 112 ;
113 [label="gini = 0.0\nsamples = 3\nvalue = [0, 3]"] ;
109 -> 113 ;
114 [label="X[3] <= -0.724\ngini = 0.105\nsamples = 18\nvalue = [1, 17]"] ;
108 -> 114 ;
115 [label="X[7] <= 0.277\ngini = 0.444\nsamples = 3\nvalue = [1, 2]"] ;
114 -> 115 ;
116 [label="gini = 0.0\nsamples = 1\nvalue = [1, 0]"] ;
115 -> 116 ;
117 [label="gini = 0.0\nsamples = 2\nvalue = [0, 2]"] ;
115 -> 117 ;
118 [label="gini = 0.0\nsamples = 15\nvalue = [0, 15]"] ;
114 -> 118 ;
119 [label="gini = 0.0\nsamples = 2\nvalue = [2, 0]"] ;
107 -> 119 ;
120 [label="X[5] <= -0.259\ngini = 0.474\nsamples = 220\nvalue = [85, 135]"] ;
0 -> 120 [labeldistance=2.5, labelangle=-45, headlabel="False"] ;
121 [label="X[1] <= 0.77\ngini = 0.441\nsamples = 61\nvalue = [41, 20]"] ;
120 -> 121 ;
122 [label="X[5] <= -0.488\ngini = 0.257\nsamples = 33\nvalue = [28, 5]"] ;
121 -> 122 ;
123 [label="X[2] <= -0.678\ngini = 0.142\nsamples = 26\nvalue = [24, 2]"] ;
122 -> 123 ;
124 [label="X[1] <= 0.504\ngini = 0.5\nsamples = 2\nvalue = [1, 1]"] ;
123 -> 124 ;
125 [label="gini = 0.0\nsamples = 1\nvalue = [1, 0]"] ;
124 -> 125 ;
126 [label="gini = 0.0\nsamples = 1\nvalue = [0, 1]"] ;
124 -> 126 ;
127 [label="X[3] <= 0.468\ngini = 0.08\nsamples = 24\nvalue = [23, 1]"] ;
123 -> 127 ;
128 [label="gini = 0.0\nsamples = 20\nvalue = [20, 0]"] ;
127 -> 128 ;
129 [label="X[3] <= 0.594\ngini = 0.375\nsamples = 4\nvalue = [3, 1]"] ;
127 -> 129 ;
130 [label="gini = 0.0\nsamples = 1\nvalue = [0, 1]"] ;
129 -> 130 ;
131 [label="gini = 0.0\nsamples = 3\nvalue = [3, 0]"] ;
129 -> 131 ;
132 [label="X[1] <= 0.52\ngini = 0.49\nsamples = 7\nvalue = [4, 3]"] ;
122 -> 132 ;
133 [label="X[2] <= 0.925\ngini = 0.375\nsamples = 4\nvalue = [1, 3]"] ;
132 -> 133 ;
134 [label="gini = 0.0\nsamples = 3\nvalue = [0, 3]"] ;
133 -> 134 ;
135 [label="gini = 0.0\nsamples = 1\nvalue = [1, 0]"] ;
133 -> 135 ;
136 [label="gini = 0.0\nsamples = 3\nvalue = [3, 0]"] ;
132 -> 136 ;
137 [label="X[7] <= -0.659\ngini = 0.497\nsamples = 28\nvalue = [13, 15]"] ;
121 -> 137 ;
138 [label="gini = 0.0\nsamples = 4\nvalue = [4, 0]"] ;
137 -> 138 ;
139 [label="X[4] <= -0.567\ngini = 0.469\nsamples = 24\nvalue = [9, 15]"] ;
137 -> 139 ;
140 [label="X[6] <= -0.882\ngini = 0.486\nsamples = 12\nvalue = [7, 5]"] ;
139 -> 140 ;
141 [label="gini = 0.0\nsamples = 2\nvalue = [0, 2]"] ;
140 -> 141 ;
142 [label="X[7] <= -0.403\ngini = 0.42\nsamples = 10\nvalue = [7, 3]"] ;
140 -> 142 ;
143 [label="gini = 0.0\nsamples = 1\nvalue = [0, 1]"] ;
142 -> 143 ;
144 [label="X[1] <= 2.335\ngini = 0.346\nsamples = 9\nvalue = [7, 2]"] ;
142 -> 144 ;
145 [label="X[0] <= 1.382\ngini = 0.219\nsamples = 8\nvalue = [7, 1]"] ;
144 -> 145 ;
146 [label="gini = 0.0\nsamples = 6\nvalue = [6, 0]"] ;
145 -> 146 ;
147 [label="X[0] <= 1.679\ngini = 0.5\nsamples = 2\nvalue = [1, 1]"] ;
145 -> 147 ;
148 [label="gini = 0.0\nsamples = 1\nvalue = [0, 1]"] ;
147 -> 148 ;
149 [label="gini = 0.0\nsamples = 1\nvalue = [1, 0]"] ;
147 -> 149 ;
150 [label="gini = 0.0\nsamples = 1\nvalue = [0, 1]"] ;
144 -> 150 ;
151 [label="X[6] <= 0.946\ngini = 0.278\nsamples = 12\nvalue = [2, 10]"] ;
139 -> 151 ;
152 [label="X[7] <= -0.446\ngini = 0.165\nsamples = 11\nvalue = [1, 10]"] ;
151 -> 152 ;
153 [label="X[2] <= 0.537\ngini = 0.5\nsamples = 2\nvalue = [1, 1]"] ;
152 -> 153 ;
154 [label="gini = 0.0\nsamples = 1\nvalue = [0, 1]"] ;
153 -> 154 ;
155 [label="gini = 0.0\nsamples = 1\nvalue = [1, 0]"] ;
153 -> 155 ;
156 [label="gini = 0.0\nsamples = 9\nvalue = [0, 9]"] ;
152 -> 156 ;
157 [label="gini = 0.0\nsamples = 1\nvalue = [1, 0]"] ;
151 -> 157 ;
158 [label="X[1] <= 1.146\ngini = 0.4\nsamples = 159\nvalue = [44, 115]"] ;
120 -> 158 ;
159 [label="X[7] <= -0.829\ngini = 0.471\nsamples = 92\nvalue = [35, 57]"] ;
158 -> 159 ;
160 [label="X[4] <= 1.204\ngini = 0.444\nsamples = 15\nvalue = [10, 5]"] ;
159 -> 160 ;
161 [label="X[5] <= 0.223\ngini = 0.494\nsamples = 9\nvalue = [4, 5]"] ;
160 -> 161 ;
162 [label="X[0] <= -0.102\ngini = 0.444\nsamples = 6\nvalue = [4, 2]"] ;
161 -> 162 ;
163 [label="gini = 0.0\nsamples = 4\nvalue = [4, 0]"] ;
162 -> 163 ;
164 [label="gini = 0.0\nsamples = 2\nvalue = [0, 2]"] ;
162 -> 164 ;
165 [label="gini = 0.0\nsamples = 3\nvalue = [0, 3]"] ;
161 -> 165 ;
166 [label="gini = 0.0\nsamples = 6\nvalue = [6, 0]"] ;
160 -> 166 ;
167 [label="X[6] <= -0.424\ngini = 0.439\nsamples = 77\nvalue = [25, 52]"] ;
159 -> 167 ;
168 [label="X[5] <= 1.727\ngini = 0.5\nsamples = 32\nvalue = [16, 16]"] ;
167 -> 168 ;
169 [label="X[2] <= -0.109\ngini = 0.49\nsamples = 28\nvalue = [16, 12]"] ;
168 -> 169 ;
170 [label="X[6] <= -0.558\ngini = 0.278\nsamples = 6\nvalue = [1, 5]"] ;
169 -> 170 ;
171 [label="gini = 0.0\nsamples = 5\nvalue = [0, 5]"] ;
170 -> 171 ;
172 [label="gini = 0.0\nsamples = 1\nvalue = [1, 0]"] ;
170 -> 172 ;
173 [label="X[7] <= -0.063\ngini = 0.434\nsamples = 22\nvalue = [15, 7]"] ;
169 -> 173 ;
174 [label="gini = 0.0\nsamples = 7\nvalue = [7, 0]"] ;
173 -> 174 ;
175 [label="X[2] <= 1.029\ngini = 0.498\nsamples = 15\nvalue = [8, 7]"] ;
173 -> 175 ;
176 [label="X[4] <= 0.314\ngini = 0.473\nsamples = 13\nvalue = [8, 5]"] ;
175 -> 176 ;
177 [label="X[6] <= -0.669\ngini = 0.5\nsamples = 10\nvalue = [5, 5]"] ;
176 -> 177 ;
178 [label="X[4] <= 0.219\ngini = 0.408\nsamples = 7\nvalue = [5, 2]"] ;
177 -> 178 ;
179 [label="X[7] <= 2.915\ngini = 0.278\nsamples = 6\nvalue = [5, 1]"] ;
178 -> 179 ;
180 [label="gini = 0.0\nsamples = 5\nvalue = [5, 0]"] ;
179 -> 180 ;
181 [label="gini = 0.0\nsamples = 1\nvalue = [0, 1]"] ;
179 -> 181 ;
182 [label="gini = 0.0\nsamples = 1\nvalue = [0, 1]"] ;
178 -> 182 ;
183 [label="gini = 0.0\nsamples = 3\nvalue = [0, 3]"] ;
177 -> 183 ;
184 [label="gini = 0.0\nsamples = 3\nvalue = [3, 0]"] ;
176 -> 184 ;
185 [label="gini = 0.0\nsamples = 2\nvalue = [0, 2]"] ;
175 -> 185 ;
186 [label="gini = 0.0\nsamples = 4\nvalue = [0, 4]"] ;
168 -> 186 ;
187 [label="X[1] <= 0.989\ngini = 0.32\nsamples = 45\nvalue = [9, 36]"] ;
167 -> 187 ;
188 [label="X[6] <= 3.365\ngini = 0.224\nsamples = 39\nvalue = [5, 34]"] ;
187 -> 188 ;
189 [label="X[4] <= 2.203\ngini = 0.188\nsamples = 38\nvalue = [4, 34]"] ;
188 -> 189 ;
190 [label="X[7] <= -0.276\ngini = 0.149\nsamples = 37\nvalue = [3, 34]"] ;
189 -> 190 ;
191 [label="X[7] <= -0.488\ngini = 0.355\nsamples = 13\nvalue = [3, 10]"] ;
190 -> 191 ;
192 [label="gini = 0.0\nsamples = 8\nvalue = [0, 8]"] ;
191 -> 192 ;
193 [label="X[6] <= 0.31\ngini = 0.48\nsamples = 5\nvalue = [3, 2]"] ;
191 -> 193 ;
194 [label="gini = 0.0\nsamples = 2\nvalue = [0, 2]"] ;
193 -> 194 ;
195 [label="gini = 0.0\nsamples = 3\nvalue = [3, 0]"] ;
193 -> 195 ;
196 [label="gini = 0.0\nsamples = 24\nvalue = [0, 24]"] ;
190 -> 196 ;
197 [label="gini = 0.0\nsamples = 1\nvalue = [1, 0]"] ;
189 -> 197 ;
198 [label="gini = 0.0\nsamples = 1\nvalue = [1, 0]"] ;
188 -> 198 ;
199 [label="X[3] <= 0.5\ngini = 0.444\nsamples = 6\nvalue = [4, 2]"] ;
187 -> 199 ;
200 [label="gini = 0.0\nsamples = 2\nvalue = [0, 2]"] ;
199 -> 200 ;
201 [label="gini = 0.0\nsamples = 4\nvalue = [4, 0]"] ;
199 -> 201 ;
202 [label="X[4] <= 4.773\ngini = 0.233\nsamples = 67\nvalue = [9, 58]"] ;
158 -> 202 ;
203 [label="X[2] <= 1.235\ngini = 0.192\nsamples = 65\nvalue = [7, 58]"] ;
202 -> 203 ;
204 [label="X[2] <= -0.005\ngini = 0.153\nsamples = 60\nvalue = [5, 55]"] ;
203 -> 204 ;
205 [label="X[3] <= 0.437\ngini = 0.308\nsamples = 21\nvalue = [4, 17]"] ;
204 -> 205 ;
206 [label="X[4] <= -0.389\ngini = 0.494\nsamples = 9\nvalue = [4, 5]"] ;
205 -> 206 ;
207 [label="gini = 0.0\nsamples = 4\nvalue = [0, 4]"] ;
206 -> 207 ;
208 [label="X[2] <= -0.419\ngini = 0.32\nsamples = 5\nvalue = [4, 1]"] ;
206 -> 208 ;
209 [label="gini = 0.0\nsamples = 1\nvalue = [0, 1]"] ;
208 -> 209 ;
210 [label="gini = 0.0\nsamples = 4\nvalue = [4, 0]"] ;
208 -> 210 ;
211 [label="gini = 0.0\nsamples = 12\nvalue = [0, 12]"] ;
205 -> 211 ;
212 [label="X[5] <= 1.714\ngini = 0.05\nsamples = 39\nvalue = [1, 38]"] ;
204 -> 212 ;
213 [label="gini = 0.0\nsamples = 36\nvalue = [0, 36]"] ;
212 -> 213 ;
214 [label="X[3] <= 0.845\ngini = 0.444\nsamples = 3\nvalue = [1, 2]"] ;
212 -> 214 ;
215 [label="gini = 0.0\nsamples = 1\nvalue = [1, 0]"] ;
214 -> 215 ;
216 [label="gini = 0.0\nsamples = 2\nvalue = [0, 2]"] ;
214 -> 216 ;
217 [label="X[2] <= 1.571\ngini = 0.48\nsamples = 5\nvalue = [2, 3]"] ;
203 -> 217 ;
218 [label="gini = 0.0\nsamples = 2\nvalue = [2, 0]"] ;
217 -> 218 ;
219 [label="gini = 0.0\nsamples = 3\nvalue = [0, 3]"] ;
217 -> 219 ;
220 [label="gini = 0.0\nsamples = 2\nvalue = [2, 0]"] ;
202 -> 220 ;
}